<?xml version="1.0"?>
<opencv_storage>
<cascade>
  <stageType>BOOST</stageType>
  <featureType>HAAR</featureType>
  <height>24</height>
  <width>24</width>
  <stageParams>
    <boostType>GAB</boostType>
    <minHitRate>9.9500000476837158e-01</minHitRate>
    <maxFalseAlarm>5.0000000000000000e-01</maxFalseAlarm>
    <weightTrimRate>9.4999998807907104e-01</weightTrimRate>
    <maxDepth>1</maxDepth>
    <maxWeakCount>100</maxWeakCount></stageParams>
  <featureParams>
    <maxCatCount>0</maxCatCount>
    <featSize>1</featSize>
    <mode>BASIC</mode></featureParams>
  <stageNum>20</stageNum>
  <stages>
    <!-- stage 0 -->
    <_>
      <maxWeakCount>4</maxWeakCount>
      <stageThreshold>-4.2162281274795532e-01</stageThreshold>
      <weakClassifiers>
        <_>
          <internalNodes>
            0 -1 72 1.0043936781585217e-03</internalNodes>
          <leafValues>
            -2.0408163964748383e-01 8.1538462638854980e-01</leafValues></_>
        <_>
          <internalNodes>
            0 -1 62 5.8367606252431870e-03</internalNodes>
          <leafValues>
            -2.4660246074199677e-01 8.7946754693984985e-01</leafValues></_>
        <_>
          <internalNodes>
            0 -1 70 -1.9940047059208155e-03</internalNodes>
          <leafValues>
            8.4761673212051392e-01 -3.1961360573768616e-01</leafValues></_>
        <_>
          <internalNodes>
            0 -1 89 3.5292340908199549e-04</internalNodes>
          <leafValues>
            4.4337886571884155e-01 -8.1855547428131104e-01</leafValues></_></weakClassifiers></_>
    <!-- stage 1 -->
    <_>
      <maxWeakCount>4</maxWeakCount>
      <stageThreshold>-1.4757855236530304e-01</stageThreshold>
      <weakClassifiers>
        <_>
          <internalNodes>
            0 -1 42 -1.4230626821517944e-01</internalNodes>
          <leafValues>
            -9.2592591047286987e-01 4.2647057771682739e-01</leafValues></_>
        <_>
          <internalNodes>
            0 -1 56 -1.9286157330498099e-03</internalNodes>
          <leafValues>
            9.7595328092575073e-01 -3.5314700007438660e-01</leafValues></_>
        <_>
          <internalNodes>
            0 -1 44 -6.3789659179747105e-04</internalNodes>
          <leafValues>
            7.0662039518356323e-01 -4.2444422841072083e-01</leafValues></_>
        <_>
          <internalNodes>
            0 -1 1 -1.8866888713091612e-03</internalNodes>
          <leafValues>
            -9.2752254009246826e-01 3.5840654373168945e-01</leafValues></_></weakClassifiers></_>
    <!-- stage 2 -->
    <_>
      <maxWeakCount>4</maxWeakCount>
      <stageThreshold>-4.0050017833709717e-01</stageThreshold>
      <weakClassifiers>
        <_>
          <internalNodes>
            0 -1 25 5.5338665843009949e-03</internalNodes>
          <leafValues>
            -2.8000000119209290e-01 6.1363637447357178e-01</leafValues></_>
        <_>
          <internalNodes>
            0 -1 50 8.4461149526759982e-04</internalNodes>
          <leafValues>
            -3.2456877827644348e-01 6.8396484851837158e-01</leafValues></_>
        <_>
          <internalNodes>
            0 -1 57 -4.0969287510961294e-04</internalNodes>
          <leafValues>
            6.5625500679016113e-01 -3.5987854003906250e-01</leafValues></_>
        <_>
          <internalNodes>
            0 -1 46 -1.1000407394021749e-03</internalNodes>
          <leafValues>
            8.1440162658691406e-01 -3.2968923449516296e-01</leafValues></_></weakClassifiers></_>
    <!-- stage 3 -->
    <_>
      <maxWeakCount>5</maxWeakCount>
      <stageThreshold>-5.7105656713247299e-02</stageThreshold>
      <weakClassifiers>
        <_>
          <internalNodes>
            0 -1 37 7.9467811156064272e-04</internalNodes>
          <leafValues>
            -3.4883719682693481e-01 8.1818181276321411e-01</leafValues></_>
        <_>
          <internalNodes>
            0 -1 58 9.2687469441443682e-04</internalNodes>
          <leafValues>
            -3.1561803817749023e-01 7.9652714729309082e-01</leafValues></_>
        <_>
          <internalNodes>
            0 -1 22 8.0310337245464325e-02</internalNodes>
          <leafValues>
            5.1057666540145874e-01 -6.7105007171630859e-01</leafValues></_>
        <_>
          <internalNodes>
            0 -1 79 -1.2363610789179802e-02</internalNodes>
          <leafValues>
            1. -3.5782545804977417e-01</leafValues></_>
        <_>
          <internalNodes>
            0 -1 30 -3.1263803975889459e-05</internalNodes>
          <leafValues>
            -5.5613672733306885e-01 5.2407991886138916e-01</leafValues></_></weakClassifiers></_>
    <!-- stage 4 -->
    <_>
      <maxWeakCount>5</maxWeakCount>
      <stageThreshold>-4.3918913602828979e-01</stageThreshold>
      <weakClassifiers>
        <_>
          <internalNodes>
            0 -1 13 -7.7703548595309258e-03</internalNodes>
          <leafValues>
            8.9285713434219360e-01 -1.5887850522994995e-01</leafValues></_>
        <_>
          <internalNodes>
            0 -1 68 -1.6233136877417564e-02</internalNodes>
          <leafValues>
            8.4090685844421387e-01 -2.3798558115959167e-01</leafValues></_>
        <_>
          <internalNodes>
            0 -1 76 8.6880419403314590e-03</internalNodes>
          <leafValues>
            -4.2115399241447449e-01 7.5684452056884766e-01</leafValues></_>
        <_>
          <internalNodes>
            0 -1 67 -7.7826562337577343e-03</internalNodes>
          <leafValues>
            8.1586271524429321e-01 -2.2015389800071716e-01</leafValues></_>
        <_>
          <internalNodes>
            0 -1 41 -9.5234531909227371e-04</internalNodes>
          <leafValues>
            6.5090322494506836e-01 -4.5275279879570007e-01</leafValues></_></weakClassifiers></_>
    <!-- stage 5 -->
    <_>
      <maxWeakCount>7</maxWeakCount>
      <stageThreshold>-2.4527657032012939e-01</stageThreshold>
      <weakClassifiers>
        <_>
          <internalNodes>
            0 -1 6 1.0312695801258087e-01</internalNodes>
          <leafValues>
            -3.2467532157897949e-01 6.7441862821578979e-01</leafValues></_>
        <_>
          <internalNodes>
            0 -1 64 -5.7257094886153936e-04</internalNodes>
          <leafValues>
            8.0708748102188110e-01 -3.0393987894058228e-01</leafValues></_>
        <_>
          <internalNodes>
            0 -1 51 -3.7098273169249296e-03</internalNodes>
          <leafValues>
            8.9992415904998779e-01 -2.5421604514122009e-01</leafValues></_>
        <_>
          <internalNodes>
            0 -1 47 -3.9849340100772679e-04</internalNodes>
          <leafValues>
            7.8547465801239014e-01 -3.0630031228065491e-01</leafValues></_>
        <_>
          <internalNodes>
            0 -1 19 -1.4964027330279350e-02</internalNodes>
          <leafValues>
            7.0392638444900513e-01 -4.3804314732551575e-01</leafValues></_>
        <_>
          <internalNodes>
            0 -1 60 -9.0685151517391205e-03</internalNodes>
          <leafValues>
            7.7588719129562378e-01 -3.9954489469528198e-01</leafValues></_>
        <_>
          <internalNodes>
            0 -1 71 -4.1859135963022709e-03</internalNodes>
          <leafValues>
            7.9615885019302368e-01 -3.7179106473922729e-01</leafValues></_></weakClassifiers></_>
    <!-- stage 6 -->
    <_>
      <maxWeakCount>7</maxWeakCount>
      <stageThreshold>-3.7988987565040588e-01</stageThreshold>
      <weakClassifiers>
        <_>
          <internalNodes>
            0 -1 12 4.6186938881874084e-02</internalNodes>
          <leafValues>
            -2.0388349890708923e-01 8.9999997615814209e-01</leafValues></_>
        <_>
          <internalNodes>
            0 -1 97 -4.5248380047269166e-04</internalNodes>
          <leafValues>
            -3.2512047886848450e-01 5.8985757827758789e-01</leafValues></_>
        <_>
          <internalNodes>
            0 -1 16 -2.5810362421907485e-04</internalNodes>
          <leafValues>
            -3.6894476413726807e-01 6.1336350440979004e-01</leafValues></_>
        <_>
          <internalNodes>
            0 -1 4 2.4861205369234085e-02</internalNodes>
          <leafValues>
            -3.0222505331039429e-01 8.2345724105834961e-01</leafValues></_>
        <_>
          <internalNodes>
            0 -1 49 -4.2478004470467567e-03</internalNodes>
          <leafValues>
            7.0047760009765625e-01 -2.6754757761955261e-01</leafValues></_>
        <_>
          <internalNodes>
            0 -1 80 -1.8733324395725504e-05</internalNodes>
          <leafValues>
            5.2970010042190552e-01 -4.6255478262901306e-01</leafValues></_>
        <_>
          <internalNodes>
            0 -1 21 9.2581463977694511e-03</internalNodes>
          <leafValues>
            -3.5684674978256226e-01 6.1007404327392578e-01</leafValues></_></weakClassifiers></_>
    <!-- stage 7 -->
    <_>
      <maxWeakCount>6</maxWeakCount>
      <stageThreshold>-7.2812587022781372e-01</stageThreshold>
      <weakClassifiers>
        <_>
          <internalNodes>
            0 -1 15 -2.0147934556007385e-03</internalNodes>
          <leafValues>
            -6.3636362552642822e-01 4.1538462042808533e-01</leafValues></_>
        <_>
          <internalNodes>
            0 -1 43 -1.8071554601192474e-02</internalNodes>
          <leafValues>
            8.8739293813705444e-01 -2.1442320942878723e-01</leafValues></_>
        <_>
          <internalNodes>
            0 -1 26 1.3660125841852278e-04</internalNodes>
          <leafValues>
            4.0700531005859375e-01 -5.2384674549102783e-01</leafValues></_>
        <_>
          <internalNodes>
            0 -1 92 1.2899316789116710e-04</internalNodes>
          <leafValues>
            4.0156945586204529e-01 -5.5392736196517944e-01</leafValues></_>
        <_>
          <internalNodes>
            0 -1 31 5.0455918535590172e-03</internalNodes>
          <leafValues>
            -2.8516665101051331e-01 8.2056367397308350e-01</leafValues></_>
        <_>
          <internalNodes>
            0 -1 84 1.0409559763502330e-04</internalNodes>
          <leafValues>
            4.3493226170539856e-01 -5.2164334058761597e-01</leafValues></_></weakClassifiers></_>
    <!-- stage 8 -->
    <_>
      <maxWeakCount>4</maxWeakCount>
      <stageThreshold>-2.1450321376323700e-01</stageThreshold>
      <weakClassifiers>
        <_>
          <internalNodes>
            0 -1 40 -1.5929898247122765e-02</internalNodes>
          <leafValues>
            7.3770493268966675e-01 -1.1764705926179886e-01</leafValues></_>
        <_>
          <internalNodes>
            0 -1 69 -2.8388484497554600e-04</internalNodes>
          <leafValues>
            6.7577725648880005e-01 -2.8342986106872559e-01</leafValues></_>
        <_>
          <internalNodes>
            0 -1 39 -3.7700898246839643e-04</internalNodes>
          <leafValues>
            6.3859975337982178e-01 -4.1735929250717163e-01</leafValues></_>
        <_>
          <internalNodes>
            0 -1 52 -2.4608732201159000e-03</internalNodes>
          <leafValues>
            9.6524310111999512e-01 -2.5141897797584534e-01</leafValues></_></weakClassifiers></_>
    <!-- stage 9 -->
    <_>
      <maxWeakCount>5</maxWeakCount>
      <stageThreshold>-5.3299762308597565e-02</stageThreshold>
      <weakClassifiers>
        <_>
          <internalNodes>
            0 -1 81 6.5247155725955963e-04</internalNodes>
          <leafValues>
            6.2352943420410156e-01 -2.5641027092933655e-01</leafValues></_>
        <_>
          <internalNodes>
            0 -1 61 4.6406302135437727e-04</internalNodes>
          <leafValues>
            4.0715843439102173e-01 -5.7283061742782593e-01</leafValues></_>
        <_>
          <internalNodes>
            0 -1 33 -2.8509553521871567e-02</internalNodes>
          <leafValues>
            6.6662091016769409e-01 -3.8936811685562134e-01</leafValues></_>
        <_>
          <internalNodes>
            0 -1 54 -1.9808653742074966e-02</internalNodes>
          <leafValues>
            7.2515416145324707e-01 -3.4431341290473938e-01</leafValues></_>
        <_>
          <internalNodes>
            0 -1 38 1.0128866415470839e-04</internalNodes>
          <leafValues>
            6.9427824020385742e-01 -3.5030606389045715e-01</leafValues></_></weakClassifiers></_>
    <!-- stage 10 -->
    <_>
      <maxWeakCount>6</maxWeakCount>
      <stageThreshold>-2.6818251609802246e-01</stageThreshold>
      <weakClassifiers>
        <_>
          <internalNodes>
            0 -1 92 -9.9359685555100441e-04</internalNodes>
          <leafValues>
            -8.2608693838119507e-01 3.7142857909202576e-01</leafValues></_>
        <_>
          <internalNodes>
            0 -1 74 1.2493114918470383e-03</internalNodes>
          <leafValues>
            -2.7343675494194031e-01 7.7063852548599243e-01</leafValues></_>
        <_>
          <internalNodes>
            0 -1 63 -2.6909299194812775e-02</internalNodes>
          <leafValues>
            8.4420168399810791e-01 -2.3720651865005493e-01</leafValues></_>
        <_>
          <internalNodes>
            0 -1 59 -5.5739178787916899e-04</internalNodes>
          <leafValues>
            8.8651609420776367e-01 -1.8374480307102203e-01</leafValues></_>
        <_>
          <internalNodes>
            0 -1 29 -2.3532116028945893e-04</internalNodes>
          <leafValues>
            4.7824212908744812e-01 -5.0909465551376343e-01</leafValues></_>
        <_>
          <internalNodes>
            0 -1 82 7.3990726377815008e-05</internalNodes>
          <leafValues>
            5.6901496648788452e-01 -3.6409628391265869e-01</leafValues></_></weakClassifiers></_>
    <!-- stage 11 -->
    <_>
      <maxWeakCount>4</maxWeakCount>
      <stageThreshold>-3.1795918941497803e-01</stageThreshold>
      <weakClassifiers>
        <_>
          <internalNodes>
            0 -1 20 -1.7216913693118840e-04</internalNodes>
          <leafValues>
            -6.6666668653488159e-01 5.0413221120834351e-01</leafValues></_>
        <_>
          <internalNodes>
            0 -1 86 2.0473086624406278e-04</internalNodes>
          <leafValues>
            4.1360229253768921e-01 -6.1393737792968750e-01</leafValues></_>
        <_>
          <internalNodes>
            0 -1 34 -3.2105774153023958e-04</internalNodes>
          <leafValues>
            -7.0362782478332520e-01 4.1689169406890869e-01</leafValues></_>
        <_>
          <internalNodes>
            0 -1 5 1.2743952870368958e-01</internalNodes>
          <leafValues>
            -4.5243251323699951e-01 6.3873302936553955e-01</leafValues></_></weakClassifiers></_>
    <!-- stage 12 -->
    <_>
      <maxWeakCount>5</maxWeakCount>
      <stageThreshold>-1.1589407920837402e-01</stageThreshold>
      <weakClassifiers>
        <_>
          <internalNodes>
            0 -1 18 3.9831484900787473e-04</internalNodes>
          <leafValues>
            5.1724135875701904e-01 -5.7446807622909546e-01</leafValues></_>
        <_>
          <internalNodes>
            0 -1 90 2.6513420743867755e-04</internalNodes>
          <leafValues>
            3.3582031726837158e-01 -7.1480917930603027e-01</leafValues></_>
        <_>
          <internalNodes>
            0 -1 17 -3.2306465436704457e-04</internalNodes>
          <leafValues>
            -7.2967374324798584e-01 3.8941606879234314e-01</leafValues></_>
        <_>
          <internalNodes>
            0 -1 95 -6.5695334342308342e-05</internalNodes>
          <leafValues>
            -5.4622709751129150e-01 5.4610395431518555e-01</leafValues></_>
        <_>
          <internalNodes>
            0 -1 2 6.0679321177303791e-04</internalNodes>
          <leafValues>
            3.2189577817916870e-01 -8.1214469671249390e-01</leafValues></_></weakClassifiers></_>
    <!-- stage 13 -->
    <_>
      <maxWeakCount>4</maxWeakCount>
      <stageThreshold>-3.3817800879478455e-01</stageThreshold>
      <weakClassifiers>
        <_>
          <internalNodes>
            0 -1 0 -1.8639182671904564e-03</internalNodes>
          <leafValues>
            -8.7500000000000000e-01 4.6564885973930359e-01</leafValues></_>
        <_>
          <internalNodes>
            0 -1 88 -1.8118642037734389e-04</internalNodes>
          <leafValues>
            -6.7875558137893677e-01 3.3125647902488708e-01</leafValues></_>
        <_>
          <internalNodes>
            0 -1 53 3.9205938810482621e-04</internalNodes>
          <leafValues>
            5.9216022491455078e-01 -4.5866090059280396e-01</leafValues></_>
        <_>
          <internalNodes>
            0 -1 24 -2.6157696265727282e-04</internalNodes>
          <leafValues>
            -6.7642241716384888e-01 4.6200007200241089e-01</leafValues></_></weakClassifiers></_>
    <!-- stage 14 -->
    <_>
      <maxWeakCount>6</maxWeakCount>
      <stageThreshold>-1.0926680266857147e-01</stageThreshold>
      <weakClassifiers>
        <_>
          <internalNodes>
            0 -1 91 -2.3497894289903343e-04</internalNodes>
          <leafValues>
            -6.1111110448837280e-01 4.3307086825370789e-01</leafValues></_>
        <_>
          <internalNodes>
            0 -1 9 8.0745806917548180e-04</internalNodes>
          <leafValues>
            3.5764095187187195e-01 -6.4114779233932495e-01</leafValues></_>
        <_>
          <internalNodes>
            0 -1 14 9.9527736892923713e-05</internalNodes>
          <leafValues>
            5.9167534112930298e-01 -4.4413053989410400e-01</leafValues></_>
        <_>
          <internalNodes>
            0 -1 83 1.7621847800910473e-03</internalNodes>
          <leafValues>
            3.4573364257812500e-01 -7.0038086175918579e-01</leafValues></_>
        <_>
          <internalNodes>
            0 -1 75 -5.6898174807429314e-03</internalNodes>
          <leafValues>
            9.1708856821060181e-01 -2.8060886263847351e-01</leafValues></_>
        <_>
          <internalNodes>
            0 -1 78 -3.0772356694797054e-05</internalNodes>
          <leafValues>
            5.2320909500122070e-01 -4.9922892451286316e-01</leafValues></_></weakClassifiers></_>
    <!-- stage 15 -->
    <_>
      <maxWeakCount>6</maxWeakCount>
      <stageThreshold>-1.8976429104804993e-01</stageThreshold>
      <weakClassifiers>
        <_>
          <internalNodes>
            0 -1 36 -1.3647042214870453e-03</internalNodes>
          <leafValues>
            -4.0350878238677979e-01 5.2830189466476440e-01</leafValues></_>
        <_>
          <internalNodes>
            0 -1 77 2.9853326268494129e-03</internalNodes>
          <leafValues>
            -2.2930489480495453e-01 7.6377183198928833e-01</leafValues></_>
        <_>
          <internalNodes>
            0 -1 10 1.3861713232472539e-03</internalNodes>
          <leafValues>
            3.3832272887229919e-01 -6.5975654125213623e-01</leafValues></_>
        <_>
          <internalNodes>
            0 -1 27 2.0152375509496778e-04</internalNodes>
          <leafValues>
            2.1792940795421600e-01 -8.5375732183456421e-01</leafValues></_>
        <_>
          <internalNodes>
            0 -1 11 5.5317778605967760e-04</internalNodes>
          <leafValues>
            2.9537436366081238e-01 -7.3709642887115479e-01</leafValues></_>
        <_>
          <internalNodes>
            0 -1 66 -3.6343364045023918e-03</internalNodes>
          <leafValues>
            8.7052476406097412e-01 -2.6870104670524597e-01</leafValues></_></weakClassifiers></_>
    <!-- stage 16 -->
    <_>
      <maxWeakCount>4</maxWeakCount>
      <stageThreshold>-1.6547210514545441e-01</stageThreshold>
      <weakClassifiers>
        <_>
          <internalNodes>
            0 -1 3 2.4472194490954280e-04</internalNodes>
          <leafValues>
            5.9259259700775146e-01 -5.6363636255264282e-01</leafValues></_>
        <_>
          <internalNodes>
            0 -1 96 8.0752314534038305e-04</internalNodes>
          <leafValues>
            3.5262864828109741e-01 -6.9898068904876709e-01</leafValues></_>
        <_>
          <internalNodes>
            0 -1 65 1.0350882075726986e-03</internalNodes>
          <leafValues>
            -3.0376780033111572e-01 7.9401218891143799e-01</leafValues></_>
        <_>
          <internalNodes>
            0 -1 35 -1.6171828610822558e-04</internalNodes>
          <leafValues>
            -7.3726588487625122e-01 3.4930339455604553e-01</leafValues></_></weakClassifiers></_>
    <!-- stage 17 -->
    <_>
      <maxWeakCount>5</maxWeakCount>
      <stageThreshold>-1.4196440577507019e-01</stageThreshold>
      <weakClassifiers>
        <_>
          <internalNodes>
            0 -1 17 5.4761220235377550e-04</internalNodes>
          <leafValues>
            5.2542370557785034e-01 -6.4444446563720703e-01</leafValues></_>
        <_>
          <internalNodes>
            0 -1 94 -3.0420639086514711e-04</internalNodes>
          <leafValues>
            -6.4068269729614258e-01 4.3847551941871643e-01</leafValues></_>
        <_>
          <internalNodes>
            0 -1 8 -8.9704524725675583e-04</internalNodes>
          <leafValues>
            -6.7268806695938110e-01 4.6368041634559631e-01</leafValues></_>
        <_>
          <internalNodes>
            0 -1 85 1.6666096053086221e-04</internalNodes>
          <leafValues>
            3.7031596899032593e-01 -7.2312891483306885e-01</leafValues></_>
        <_>
          <internalNodes>
            0 -1 87 7.7936833258718252e-04</internalNodes>
          <leafValues>
            3.6637663841247559e-01 -7.1814364194869995e-01</leafValues></_></weakClassifiers></_>
    <!-- stage 18 -->
    <_>
      <maxWeakCount>4</maxWeakCount>
      <stageThreshold>-3.1714290380477905e-01</stageThreshold>
      <weakClassifiers>
        <_>
          <internalNodes>
            0 -1 93 1.0099987266585231e-03</internalNodes>
          <leafValues>
            4.1605839133262634e-01 -9.2307692766189575e-01</leafValues></_>
        <_>
          <internalNodes>
            0 -1 28 3.1527824699878693e-02</internalNodes>
          <leafValues>
            -3.7853404879570007e-01 6.6573703289031982e-01</leafValues></_>
        <_>
          <internalNodes>
            0 -1 23 4.0510250255465508e-04</internalNodes>
          <leafValues>
            3.5237839818000793e-01 -8.0296617746353149e-01</leafValues></_>
        <_>
          <internalNodes>
            0 -1 7 -2.4940799921751022e-02</internalNodes>
          <leafValues>
            7.8314208984375000e-01 -4.1218140721321106e-01</leafValues></_></weakClassifiers></_>
    <!-- stage 19 -->
    <_>
      <maxWeakCount>6</maxWeakCount>
      <stageThreshold>-4.5662358403205872e-01</stageThreshold>
      <weakClassifiers>
        <_>
          <internalNodes>
            0 -1 32 -3.0912201851606369e-02</internalNodes>
          <leafValues>
            -8.3333331346511841e-01 3.8129496574401855e-01</leafValues></_>
        <_>
          <internalNodes>
            0 -1 48 7.9625839134678245e-05</internalNodes>
          <leafValues>
            -3.0504906177520752e-01 7.8450357913970947e-01</leafValues></_>
        <_>
          <internalNodes>
            0 -1 98 3.5575116635300219e-04</internalNodes>
          <leafValues>
            3.3774924278259277e-01 -7.0042967796325684e-01</leafValues></_>
        <_>
          <internalNodes>
            0 -1 55 3.7568595871562138e-05</internalNodes>
          <leafValues>
            -3.0285766720771790e-01 8.1452220678329468e-01</leafValues></_>
        <_>
          <internalNodes>
            0 -1 45 -2.4819359532557428e-04</internalNodes>
          <leafValues>
            8.9600872993469238e-01 -2.6226139068603516e-01</leafValues></_>
        <_>
          <internalNodes>
            0 -1 73 -1.7915172502398491e-03</internalNodes>
          <leafValues>
            6.7041027545928955e-01 -3.0549967288970947e-01</leafValues></_></weakClassifiers></_></stages>
  <features>
    <_>
      <rects>
        <_>
          0 1 1 6 -1.</_>
        <_>
          0 3 1 2 3.</_></rects>
      <tilted>0</tilted></_>
    <_>
      <rects>
        <_>
          0 1 2 5 -1.</_>
        <_>
          1 1 1 5 2.</_></rects>
      <tilted>0</tilted></_>
    <_>
      <rects>
        <_>
          0 1 4 2 -1.</_>
        <_>
          0 1 2 1 2.</_>
        <_>
          2 2 2 1 2.</_></rects>
      <tilted>0</tilted></_>
    <_>
      <rects>
        <_>
          0 2 2 3 -1.</_>
        <_>
          0 3 2 1 3.</_></rects>
      <tilted>0</tilted></_>
    <_>
      <rects>
        <_>
          0 2 6 10 -1.</_>
        <_>
          3 2 3 10 2.</_></rects>
      <tilted>0</tilted></_>
    <_>
      <rects>
        <_>
          0 4 14 16 -1.</_>
        <_>
          7 4 7 16 2.</_></rects>
      <tilted>0</tilted></_>
    <_>
      <rects>
        <_>
          0 5 24 15 -1.</_>
        <_>
          8 5 8 15 3.</_></rects>
      <tilted>0</tilted></_>
    <_>
      <rects>
        <_>
          0 5 19 12 -1.</_>
        <_>
          0 9 19 4 3.</_></rects>
      <tilted>0</tilted></_>
    <_>
      <rects>
        <_>
          0 7 1 6 -1.</_>
        <_>
          0 9 1 2 3.</_></rects>
      <tilted>0</tilted></_>
    <_>
      <rects>
        <_>
          0 7 1 9 -1.</_>
        <_>
          0 10 1 3 3.</_></rects>
      <tilted>0</tilted></_>
    <_>
      <rects>
        <_>
          0 7 2 4 -1.</_>
        <_>
          0 9 2 2 2.</_></rects>
      <tilted>0</tilted></_>
    <_>
      <rects>
        <_>
          0 11 2 4 -1.</_>
        <_>
          0 11 1 2 2.</_>
        <_>
          1 13 1 2 2.</_></rects>
      <tilted>0</tilted></_>
    <_>
      <rects>
        <_>
          0 12 24 3 -1.</_>
        <_>
          8 12 8 3 3.</_></rects>
      <tilted>0</tilted></_>
    <_>
      <rects>
        <_>
          0 14 9 5 -1.</_>
        <_>
          3 14 3 5 3.</_></rects>
      <tilted>0</tilted></_>
    <_>
      <rects>
        <_>
          0 16 1 8 -1.</_>
        <_>
          0 20 1 4 2.</_></rects>
      <tilted>0</tilted></_>
    <_>
      <rects>
        <_>
          0 16 2 6 -1.</_>
        <_>
          1 16 1 6 2.</_></rects>
      <tilted>0</tilted></_>
    <_>
      <rects>
        <_>
          0 18 1 6 -1.</_>
        <_>
          0 21 1 3 2.</_></rects>
      <tilted>0</tilted></_>
    <_>
      <rects>
        <_>
          0 20 1 3 -1.</_>
        <_>
          0 21 1 1 3.</_></rects>
      <tilted>0</tilted></_>
    <_>
      <rects>
        <_>
          1 0 3 1 -1.</_>
        <_>
          2 0 1 1 3.</_></rects>
      <tilted>0</tilted></_>
    <_>
      <rects>
        <_>
          1 17 13 6 -1.</_>
        <_>
          1 20 13 3 2.</_></rects>
      <tilted>0</tilted></_>
    <_>
      <rects>
        <_>
          2 0 2 2 -1.</_>
        <_>
          2 0 1 1 2.</_>
        <_>
          3 1 1 1 2.</_></rects>
      <tilted>0</tilted></_>
    <_>
      <rects>
        <_>
          2 2 7 14 -1.</_>
        <_>
          2 9 7 7 2.</_></rects>
      <tilted>0</tilted></_>
    <_>
      <rects>
        <_>
          2 9 22 12 -1.</_>
        <_>
          13 9 11 12 2.</_></rects>
      <tilted>0</tilted></_>
    <_>
      <rects>
        <_>
          2 18 2 1 -1.</_>
        <_>
          3 18 1 1 2.</_></rects>
      <tilted>0</tilted></_>
    <_>
      <rects>
        <_>
          3 0 2 4 -1.</_>
        <_>
          4 0 1 4 2.</_></rects>
      <tilted>0</tilted></_>
    <_>
      <rects>
        <_>
          3 0 6 19 -1.</_>
        <_>
          6 0 3 19 2.</_></rects>
      <tilted>0</tilted></_>
    <_>
      <rects>
        <_>
          3 1 2 2 -1.</_>
        <_>
          3 2 2 1 2.</_></rects>
      <tilted>0</tilted></_>
    <_>
      <rects>
        <_>
          3 4 2 2 -1.</_>
        <_>
          3 4 1 1 2.</_>
        <_>
          4 5 1 1 2.</_></rects>
      <tilted>0</tilted></_>
    <_>
      <rects>
        <_>
          3 12 15 4 -1.</_>
        <_>
          8 12 5 4 3.</_></rects>
      <tilted>0</tilted></_>
    <_>
      <rects>
        <_>
          3 18 12 3 -1.</_>
        <_>
          7 18 4 3 3.</_></rects>
      <tilted>0</tilted></_>
    <_>
      <rects>
        <_>
          3 19 4 1 -1.</_>
        <_>
          5 19 2 1 2.</_></rects>
      <tilted>0</tilted></_>
    <_>
      <rects>
        <_>
          4 9 8 1 -1.</_>
        <_>
          8 9 4 1 2.</_></rects>
      <tilted>0</tilted></_>
    <_>
      <rects>
        <_>
          4 10 9 6 -1.</_>
        <_>
          7 10 3 6 3.</_></rects>
      <tilted>0</tilted></_>
    <_>
      <rects>
        <_>
          4 11 10 10 -1.</_>
        <_>
          4 16 10 5 2.</_></rects>
      <tilted>0</tilted></_>
    <_>
      <rects>
        <_>
          4 23 2 1 -1.</_>
        <_>
          5 23 1 1 2.</_></rects>
      <tilted>0</tilted></_>
    <_>
      <rects>
        <_>
          4 23 3 1 -1.</_>
        <_>
          5 23 1 1 3.</_></rects>
      <tilted>0</tilted></_>
    <_>
      <rects>
        <_>
          4 23 10 1 -1.</_>
        <_>
          9 23 5 1 2.</_></rects>
      <tilted>0</tilted></_>
    <_>
      <rects>
        <_>
          5 0 17 4 -1.</_>
        <_>
          5 2 17 2 2.</_></rects>
      <tilted>0</tilted></_>
    <_>
      <rects>
        <_>
          5 8 6 3 -1.</_>
        <_>
          7 8 2 3 3.</_></rects>
      <tilted>0</tilted></_>
    <_>
      <rects>
        <_>
          5 15 5 3 -1.</_>
        <_>
          5 16 5 1 3.</_></rects>
      <tilted>0</tilted></_>
    <_>
      <rects>
        <_>
          5 17 9 6 -1.</_>
        <_>
          5 20 9 3 2.</_></rects>
      <tilted>0</tilted></_>
    <_>
      <rects>
        <_>
          6 15 12 1 -1.</_>
        <_>
          10 15 4 1 3.</_></rects>
      <tilted>0</tilted></_>
    <_>
      <rects>
        <_>
          7 0 15 12 -1.</_>
        <_>
          12 0 5 12 3.</_></rects>
      <tilted>0</tilted></_>
    <_>
      <rects>
        <_>
          7 3 8 4 -1.</_>
        <_>
          11 3 4 4 2.</_></rects>
      <tilted>0</tilted></_>
    <_>
      <rects>
        <_>
          7 11 8 2 -1.</_>
        <_>
          7 11 4 1 2.</_>
        <_>
          11 12 4 1 2.</_></rects>
      <tilted>0</tilted></_>
    <_>
      <rects>
        <_>
          7 18 2 2 -1.</_>
        <_>
          7 18 1 1 2.</_>
        <_>
          8 19 1 1 2.</_></rects>
      <tilted>0</tilted></_>
    <_>
      <rects>
        <_>
          8 7 2 6 -1.</_>
        <_>
          8 7 1 3 2.</_>
        <_>
          9 10 1 3 2.</_></rects>
      <tilted>0</tilted></_>
    <_>
      <rects>
        <_>
          8 13 3 1 -1.</_>
        <_>
          9 13 1 1 3.</_></rects>
      <tilted>0</tilted></_>
    <_>
      <rects>
        <_>
          9 2 2 2 -1.</_>
        <_>
          9 2 1 1 2.</_>
        <_>
          10 3 1 1 2.</_></rects>
      <tilted>0</tilted></_>
    <_>
      <rects>
        <_>
          9 4 2 20 -1.</_>
        <_>
          9 4 1 10 2.</_>
        <_>
          10 14 1 10 2.</_></rects>
      <tilted>0</tilted></_>
    <_>
      <rects>
        <_>
          9 4 4 4 -1.</_>
        <_>
          9 4 2 2 2.</_>
        <_>
          11 6 2 2 2.</_></rects>
      <tilted>0</tilted></_>
    <_>
      <rects>
        <_>
          9 6 3 17 -1.</_>
        <_>
          10 6 1 17 3.</_></rects>
      <tilted>0</tilted></_>
    <_>
      <rects>
        <_>
          9 9 3 5 -1.</_>
        <_>
          10 9 1 5 3.</_></rects>
      <tilted>0</tilted></_>
    <_>
      <rects>
        <_>
          9 9 3 13 -1.</_>
        <_>
          10 9 1 13 3.</_></rects>
      <tilted>0</tilted></_>
    <_>
      <rects>
        <_>
          9 10 14 8 -1.</_>
        <_>
          9 10 7 4 2.</_>
        <_>
          16 14 7 4 2.</_></rects>
      <tilted>0</tilted></_>
    <_>
      <rects>
        <_>
          9 11 3 1 -1.</_>
        <_>
          10 11 1 1 3.</_></rects>
      <tilted>0</tilted></_>
    <_>
      <rects>
        <_>
          9 13 2 6 -1.</_>
        <_>
          9 15 2 2 3.</_></rects>
      <tilted>0</tilted></_>
    <_>
      <rects>
        <_>
          10 6 6 2 -1.</_>
        <_>
          10 6 3 1 2.</_>
        <_>
          13 7 3 1 2.</_></rects>
      <tilted>0</tilted></_>
    <_>
      <rects>
        <_>
          10 6 5 4 -1.</_>
        <_>
          10 8 5 2 2.</_></rects>
      <tilted>0</tilted></_>
    <_>
      <rects>
        <_>
          10 8 3 1 -1.</_>
        <_>
          11 8 1 1 3.</_></rects>
      <tilted>0</tilted></_>
    <_>
      <rects>
        <_>
          10 11 14 6 -1.</_>
        <_>
          10 13 14 2 3.</_></rects>
      <tilted>0</tilted></_>
    <_>
      <rects>
        <_>
          10 23 8 1 -1.</_>
        <_>
          14 23 4 1 2.</_></rects>
      <tilted>0</tilted></_>
    <_>
      <rects>
        <_>
          11 0 1 12 -1.</_>
        <_>
          11 6 1 6 2.</_></rects>
      <tilted>0</tilted></_>
    <_>
      <rects>
        <_>
          11 4 4 16 -1.</_>
        <_>
          13 4 2 16 2.</_></rects>
      <tilted>0</tilted></_>
    <_>
      <rects>
        <_>
          11 6 2 4 -1.</_>
        <_>
          12 6 1 4 2.</_></rects>
      <tilted>0</tilted></_>
    <_>
      <rects>
        <_>
          11 13 2 4 -1.</_>
        <_>
          11 13 1 2 2.</_>
        <_>
          12 15 1 2 2.</_></rects>
      <tilted>0</tilted></_>
    <_>
      <rects>
        <_>
          12 7 3 7 -1.</_>
        <_>
          13 7 1 7 3.</_></rects>
      <tilted>0</tilted></_>
    <_>
      <rects>
        <_>
          12 10 6 8 -1.</_>
        <_>
          14 10 2 8 3.</_></rects>
      <tilted>0</tilted></_>
    <_>
      <rects>
        <_>
          12 10 9 8 -1.</_>
        <_>
          15 10 3 8 3.</_></rects>
      <tilted>0</tilted></_>
    <_>
      <rects>
        <_>
          12 12 1 3 -1.</_>
        <_>
          12 13 1 1 3.</_></rects>
      <tilted>0</tilted></_>
    <_>
      <rects>
        <_>
          12 12 7 3 -1.</_>
        <_>
          12 13 7 1 3.</_></rects>
      <tilted>0</tilted></_>
    <_>
      <rects>
        <_>
          12 13 6 6 -1.</_>
        <_>
          14 13 2 6 3.</_></rects>
      <tilted>0</tilted></_>
    <_>
      <rects>
        <_>
          13 1 3 4 -1.</_>
        <_>
          13 3 3 2 2.</_></rects>
      <tilted>0</tilted></_>
    <_>
      <rects>
        <_>
          13 3 2 9 -1.</_>
        <_>
          13 6 2 3 3.</_></rects>
      <tilted>0</tilted></_>
    <_>
      <rects>
        <_>
          13 5 2 6 -1.</_>
        <_>
          13 5 1 3 2.</_>
        <_>
          14 8 1 3 2.</_></rects>
      <tilted>0</tilted></_>
    <_>
      <rects>
        <_>
          13 5 3 11 -1.</_>
        <_>
          14 5 1 11 3.</_></rects>
      <tilted>0</tilted></_>
    <_>
      <rects>
        <_>
          13 5 6 12 -1.</_>
        <_>
          15 5 2 12 3.</_></rects>
      <tilted>0</tilted></_>
    <_>
      <rects>
        <_>
          14 2 3 9 -1.</_>
        <_>
          15 2 1 9 3.</_></rects>
      <tilted>0</tilted></_>
    <_>
      <rects>
        <_>
          14 8 9 4 -1.</_>
        <_>
          17 8 3 4 3.</_></rects>
      <tilted>0</tilted></_>
    <_>
      <rects>
        <_>
          15 8 4 7 -1.</_>
        <_>
          17 8 2 7 2.</_></rects>
      <tilted>0</tilted></_>
    <_>
      <rects>
        <_>
          16 11 1 3 -1.</_>
        <_>
          16 12 1 1 3.</_></rects>
      <tilted>0</tilted></_>
    <_>
      <rects>
        <_>
          17 7 4 6 -1.</_>
        <_>
          17 9 4 2 3.</_></rects>
      <tilted>0</tilted></_>
    <_>
      <rects>
        <_>
          18 17 6 6 -1.</_>
        <_>
          18 17 3 3 2.</_>
        <_>
          21 20 3 3 2.</_></rects>
      <tilted>0</tilted></_>
    <_>
      <rects>
        <_>
          19 5 3 7 -1.</_>
        <_>
          20 5 1 7 3.</_></rects>
      <tilted>0</tilted></_>
    <_>
      <rects>
        <_>
          19 19 2 4 -1.</_>
        <_>
          19 21 2 2 2.</_></rects>
      <tilted>0</tilted></_>
    <_>
      <rects>
        <_>
          19 23 3 1 -1.</_>
        <_>
          20 23 1 1 3.</_></rects>
      <tilted>0</tilted></_>
    <_>
      <rects>
        <_>
          19 23 4 1 -1.</_>
        <_>
          21 23 2 1 2.</_></rects>
      <tilted>0</tilted></_>
    <_>
      <rects>
        <_>
          20 15 4 3 -1.</_>
        <_>
          20 16 4 1 3.</_></rects>
      <tilted>0</tilted></_>
    <_>
      <rects>
        <_>
          21 0 2 2 -1.</_>
        <_>
          21 0 1 1 2.</_>
        <_>
          22 1 1 1 2.</_></rects>
      <tilted>0</tilted></_>
    <_>
      <rects>
        <_>
          21 8 2 5 -1.</_>
        <_>
          22 8 1 5 2.</_></rects>
      <tilted>0</tilted></_>
    <_>
      <rects>
        <_>
          22 0 1 2 -1.</_>
        <_>
          22 1 1 1 2.</_></rects>
      <tilted>0</tilted></_>
    <_>
      <rects>
        <_>
          22 1 2 2 -1.</_>
        <_>
          22 1 1 1 2.</_>
        <_>
          23 2 1 1 2.</_></rects>
      <tilted>0</tilted></_>
    <_>
      <rects>
        <_>
          22 2 2 2 -1.</_>
        <_>
          22 3 2 1 2.</_></rects>
      <tilted>0</tilted></_>
    <_>
      <rects>
        <_>
          22 3 2 3 -1.</_>
        <_>
          22 4 2 1 3.</_></rects>
      <tilted>0</tilted></_>
    <_>
      <rects>
        <_>
          22 11 2 4 -1.</_>
        <_>
          22 11 1 2 2.</_>
        <_>
          23 13 1 2 2.</_></rects>
      <tilted>0</tilted></_>
    <_>
      <rects>
        <_>
          22 21 2 2 -1.</_>
        <_>
          23 21 1 2 2.</_></rects>
      <tilted>0</tilted></_>
    <_>
      <rects>
        <_>
          23 0 1 6 -1.</_>
        <_>
          23 2 1 2 3.</_></rects>
      <tilted>0</tilted></_>
    <_>
      <rects>
        <_>
          23 3 1 8 -1.</_>
        <_>
          23 7 1 4 2.</_></rects>
      <tilted>0</tilted></_>
    <_>
      <rects>
        <_>
          23 21 1 3 -1.</_>
        <_>
          23 22 1 1 3.</_></rects>
      <tilted>0</tilted></_></features></cascade>
</opencv_storage>
